digraph Tree {
0 [label="X[11] <= 645.0000\ngini = 0.200629790655\nsamples = 3616", shape="box"] ;
1 [label="X[11] <= 211.5000\ngini = 0.150742688819\nsamples = 3349", shape="box"] ;
0 -> 1 ;
2 [label="X[0] <= 19.5000\ngini = 0.0559838423334\nsamples = 2047", shape="box"] ;
1 -> 2 ;
3 [label="gini = 0.0000\nsamples = 2\nvalue = [ 0.  2.]", shape="box"] ;
2 -> 3 ;
4 [label="X[0] <= 70.5000\ngini = 0.0541919285514\nsamples = 2045", shape="box"] ;
2 -> 4 ;
5 [label="X[15] <= 2.5000\ngini = 0.0490781732833\nsamples = 2026", shape="box"] ;
4 -> 5 ;
6 [label="X[13] <= 102.5000\ngini = 0.14201183432\nsamples = 338", shape="box"] ;
5 -> 6 ;
7 [label="X[13] <= 90.5000\ngini = 0.46375739645\nsamples = 52", shape="box"] ;
6 -> 7 ;
8 [label="X[10] <= 2.0000\ngini = 0.244897959184\nsamples = 28", shape="box"] ;
7 -> 8 ;
9 [label="X[12] <= 4.0000\ngini = 0.375\nsamples = 4", shape="box"] ;
8 -> 9 ;
10 [label="gini = 0.0000\nsamples = 3\nvalue = [ 0.  3.]", shape="box"] ;
9 -> 10 ;
11 [label="gini = 0.0000\nsamples = 1\nvalue = [ 1.  0.]", shape="box"] ;
9 -> 11 ;
12 [label="X[15] <= 1.5000\ngini = 0.0798611111111\nsamples = 24", shape="box"] ;
8 -> 12 ;
13 [label="gini = 0.0000\nsamples = 21\nvalue = [ 21.   0.]", shape="box"] ;
12 -> 13 ;
14 [label="X[13] <= 73.0000\ngini = 0.444444444444\nsamples = 3", shape="box"] ;
12 -> 14 ;
15 [label="gini = 0.0000\nsamples = 1\nvalue = [ 0.  1.]", shape="box"] ;
14 -> 15 ;
16 [label="gini = 0.0000\nsamples = 2\nvalue = [ 2.  0.]", shape="box"] ;
14 -> 16 ;
17 [label="X[11] <= 135.5000\ngini = 0.46875\nsamples = 24", shape="box"] ;
7 -> 17 ;
18 [label="X[1] <= 6.5000\ngini = 0.375\nsamples = 8", shape="box"] ;
17 -> 18 ;
19 [label="gini = 0.0000\nsamples = 5\nvalue = [ 5.  0.]", shape="box"] ;
18 -> 19 ;
20 [label="X[5] <= 205.0000\ngini = 0.444444444444\nsamples = 3", shape="box"] ;
18 -> 20 ;
21 [label="gini = 0.0000\nsamples = 1\nvalue = [ 1.  0.]", shape="box"] ;
20 -> 21 ;
22 [label="gini = 0.0000\nsamples = 2\nvalue = [ 0.  2.]", shape="box"] ;
20 -> 22 ;
23 [label="X[0] <= 63.5000\ngini = 0.3046875\nsamples = 16", shape="box"] ;
17 -> 23 ;
24 [label="X[5] <= 1359.5000\ngini = 0.231111111111\nsamples = 15", shape="box"] ;
23 -> 24 ;
25 [label="gini = 0.0000\nsamples = 10\nvalue = [  0.  10.]", shape="box"] ;
24 -> 25 ;
26 [label="X[1] <= 5.5000\ngini = 0.48\nsamples = 5", shape="box"] ;
24 -> 26 ;
27 [label="X[5] <= 4284.5000\ngini = 0.444444444444\nsamples = 3", shape="box"] ;
26 -> 27 ;
28 [label="gini = 0.0000\nsamples = 2\nvalue = [ 2.  0.]", shape="box"] ;
27 -> 28 ;
29 [label="gini = 0.0000\nsamples = 1\nvalue = [ 0.  1.]", shape="box"] ;
27 -> 29 ;
30 [label="gini = 0.0000\nsamples = 2\nvalue = [ 0.  2.]", shape="box"] ;
26 -> 30 ;
31 [label="gini = 0.0000\nsamples = 1\nvalue = [ 1.  0.]", shape="box"] ;
23 -> 31 ;
32 [label="X[0] <= 57.5000\ngini = 0.0477529463543\nsamples = 286", shape="box"] ;
6 -> 32 ;
33 [label="X[15] <= 1.5000\ngini = 0.0291906721536\nsamples = 270", shape="box"] ;
32 -> 33 ;
34 [label="X[8] <= 1.5000\ngini = 0.0155632449058\nsamples = 255", shape="box"] ;
33 -> 34 ;
35 [label="X[0] <= 54.5000\ngini = 0.00799987096982\nsamples = 249", shape="box"] ;
34 -> 35 ;
36 [label="gini = 0.0000\nsamples = 237\nvalue = [ 237.    0.]", shape="box"] ;
35 -> 36 ;
37 [label="X[5] <= 2485.5000\ngini = 0.152777777778\nsamples = 12", shape="box"] ;
35 -> 37 ;
38 [label="gini = 0.0000\nsamples = 11\nvalue = [ 11.   0.]", shape="box"] ;
37 -> 38 ;
39 [label="gini = 0.0000\nsamples = 1\nvalue = [ 0.  1.]", shape="box"] ;
37 -> 39 ;
40 [label="X[14] <= 1.5000\ngini = 0.277777777778\nsamples = 6", shape="box"] ;
34 -> 40 ;
41 [label="gini = 0.0000\nsamples = 1\nvalue = [ 0.  1.]", shape="box"] ;
40 -> 41 ;
42 [label="gini = 0.0000\nsamples = 5\nvalue = [ 5.  0.]", shape="box"] ;
40 -> 42 ;
43 [label="X[12] <= 3.5000\ngini = 0.231111111111\nsamples = 15", shape="box"] ;
33 -> 43 ;
44 [label="X[14] <= 5.0000\ngini = 0.132653061224\nsamples = 14", shape="box"] ;
43 -> 44 ;
45 [label="gini = 0.0000\nsamples = 10\nvalue = [ 10.   0.]", shape="box"] ;
44 -> 45 ;
46 [label="X[1] <= 4.0000\ngini = 0.375\nsamples = 4", shape="box"] ;
44 -> 46 ;
47 [label="gini = 0.0000\nsamples = 2\nvalue = [ 2.  0.]", shape="box"] ;
46 -> 47 ;
48 [label="X[10] <= 4.5000\ngini = 0.5\nsamples = 2", shape="box"] ;
46 -> 48 ;
49 [label="gini = 0.0000\nsamples = 1\nvalue = [ 1.  0.]", shape="box"] ;
48 -> 49 ;
50 [label="gini = 0.0000\nsamples = 1\nvalue = [ 0.  1.]", shape="box"] ;
48 -> 50 ;
51 [label="gini = 0.0000\nsamples = 1\nvalue = [ 0.  1.]", shape="box"] ;
43 -> 51 ;
52 [label="X[13] <= 364.0000\ngini = 0.3046875\nsamples = 16", shape="box"] ;
32 -> 52 ;
53 [label="X[14] <= 7.5000\ngini = 0.132653061224\nsamples = 14", shape="box"] ;
52 -> 53 ;
54 [label="gini = 0.0000\nsamples = 13\nvalue = [ 13.   0.]", shape="box"] ;
53 -> 54 ;
55 [label="gini = 0.0000\nsamples = 1\nvalue = [ 0.  1.]", shape="box"] ;
53 -> 55 ;
56 [label="gini = 0.0000\nsamples = 2\nvalue = [ 0.  2.]", shape="box"] ;
52 -> 56 ;
57 [label="X[10] <= 9.5000\ngini = 0.029182155612\nsamples = 1688", shape="box"] ;
5 -> 57 ;
58 [label="X[10] <= 0.5000\ngini = 0.0250705848122\nsamples = 1654", shape="box"] ;
57 -> 58 ;
59 [label="X[6] <= 0.5000\ngini = 0.14201183432\nsamples = 65", shape="box"] ;
58 -> 59 ;
60 [label="X[0] <= 37.0000\ngini = 0.2688\nsamples = 25", shape="box"] ;
59 -> 60 ;
61 [label="X[0] <= 31.0000\ngini = 0.375\nsamples = 16", shape="box"] ;
60 -> 61 ;
62 [label="gini = 0.0000\nsamples = 8\nvalue = [ 8.  0.]", shape="box"] ;
61 -> 62 ;
63 [label="X[11] <= 174.0000\ngini = 0.5\nsamples = 8", shape="box"] ;
61 -> 63 ;
64 [label="X[9] <= 26.5000\ngini = 0.444444444444\nsamples = 6", shape="box"] ;
63 -> 64 ;
65 [label="gini = 0.0000\nsamples = 4\nvalue = [ 0.  4.]", shape="box"] ;
64 -> 65 ;
66 [label="gini = 0.0000\nsamples = 2\nvalue = [ 2.  0.]", shape="box"] ;
64 -> 66 ;
67 [label="gini = 0.0000\nsamples = 2\nvalue = [ 2.  0.]", shape="box"] ;
63 -> 67 ;
68 [label="gini = 0.0000\nsamples = 9\nvalue = [ 9.  0.]", shape="box"] ;
60 -> 68 ;
69 [label="X[9] <= 20.5000\ngini = 0.04875\nsamples = 40", shape="box"] ;
59 -> 69 ;
70 [label="gini = 0.0000\nsamples = 36\nvalue = [ 36.   0.]", shape="box"] ;
69 -> 70 ;
71 [label="X[12] <= 3.0000\ngini = 0.375\nsamples = 4", shape="box"] ;
69 -> 71 ;
72 [label="gini = 0.0000\nsamples = 3\nvalue = [ 3.  0.]", shape="box"] ;
71 -> 72 ;
73 [label="gini = 0.0000\nsamples = 1\nvalue = [ 0.  1.]", shape="box"] ;
71 -> 73 ;
74 [label="X[9] <= 16.5000\ngini = 0.0199356732349\nsamples = 1589", shape="box"] ;
58 -> 74 ;
75 [label="X[8] <= 0.5000\ngini = 0.0361168046056\nsamples = 761", shape="box"] ;
74 -> 75 ;
76 [label="X[10] <= 8.5000\ngini = 0.0659607376562\nsamples = 410", shape="box"] ;
75 -> 76 ;
77 [label="X[10] <= 2.0000\ngini = 0.0616950211457\nsamples = 408", shape="box"] ;
76 -> 77 ;
78 [label="gini = 0.0000\nsamples = 119\nvalue = [ 119.    0.]", shape="box"] ;
77 -> 78 ;
79 [label="X[6] <= 0.5000\ngini = 0.0859185115121\nsamples = 289", shape="box"] ;
77 -> 79 ;
80 [label="X[10] <= 5.5000\ngini = 0.161680541103\nsamples = 124", shape="box"] ;
79 -> 80 ;
81 [label="X[1] <= 6.5000\ngini = 0.0806648199446\nsamples = 95", shape="box"] ;
80 -> 81 ;
82 [label="gini = 0.0000\nsamples = 64\nvalue = [ 64.   0.]", shape="box"] ;
81 -> 82 ;
83 [label="X[5] <= 1840.0000\ngini = 0.224765868887\nsamples = 31", shape="box"] ;
81 -> 83 ;
84 [label="X[11] <= 131.0000\ngini = 0.14201183432\nsamples = 26", shape="box"] ;
83 -> 84 ;
85 [label="X[11] <= 126.5000\ngini = 0.231111111111\nsamples = 15", shape="box"] ;
84 -> 85 ;
86 [label="X[5] <= 972.5000\ngini = 0.132653061224\nsamples = 14", shape="box"] ;
85 -> 86 ;
87 [label="gini = 0.0000\nsamples = 11\nvalue = [ 11.   0.]", shape="box"] ;
86 -> 87 ;
88 [label="X[9] <= 10.0000\ngini = 0.444444444444\nsamples = 3", shape="box"] ;
86 -> 88 ;
89 [label="gini = 0.0000\nsamples = 2\nvalue = [ 2.  0.]", shape="box"] ;
88 -> 89 ;
90 [label="gini = 0.0000\nsamples = 1\nvalue = [ 0.  1.]", shape="box"] ;
88 -> 90 ;
91 [label="gini = 0.0000\nsamples = 1\nvalue = [ 0.  1.]", shape="box"] ;
85 -> 91 ;
92 [label="gini = 0.0000\nsamples = 11\nvalue = [ 11.   0.]", shape="box"] ;
84 -> 92 ;
93 [label="X[5] <= 2963.5000\ngini = 0.48\nsamples = 5", shape="box"] ;
83 -> 93 ;
94 [label="gini = 0.0000\nsamples = 2\nvalue = [ 0.  2.]", shape="box"] ;
93 -> 94 ;
95 [label="gini = 0.0000\nsamples = 3\nvalue = [ 3.  0.]", shape="box"] ;
93 -> 95 ;
96 [label="X[9] <= 4.5000\ngini = 0.366230677765\nsamples = 29", shape="box"] ;
80 -> 96 ;
97 [label="gini = 0.0000\nsamples = 12\nvalue = [ 12.   0.]", shape="box"] ;
96 -> 97 ;
98 [label="X[11] <= 125.0000\ngini = 0.484429065744\nsamples = 17", shape="box"] ;
96 -> 98 ;
99 [label="X[5] <= 201.5000\ngini = 0.355029585799\nsamples = 13", shape="box"] ;
98 -> 99 ;
100 [label="X[0] <= 54.0000\ngini = 0.444444444444\nsamples = 3", shape="box"] ;
99 -> 100 ;
101 [label="gini = 0.0000\nsamples = 2\nvalue = [ 0.  2.]", shape="box"] ;
100 -> 101 ;
102 [label="gini = 0.0000\nsamples = 1\nvalue = [ 1.  0.]", shape="box"] ;
100 -> 102 ;
103 [label="X[0] <= 60.0000\ngini = 0.18\nsamples = 10", shape="box"] ;
99 -> 103 ;
104 [label="gini = 0.0000\nsamples = 8\nvalue = [ 8.  0.]", shape="box"] ;
103 -> 104 ;
105 [label="X[11] <= 113.0000\ngini = 0.5\nsamples = 2", shape="box"] ;
103 -> 105 ;
106 [label="gini = 0.0000\nsamples = 1\nvalue = [ 0.  1.]", shape="box"] ;
105 -> 106 ;
107 [label="gini = 0.0000\nsamples = 1\nvalue = [ 1.  0.]", shape="box"] ;
105 -> 107 ;
108 [label="gini = 0.0000\nsamples = 4\nvalue = [ 0.  4.]", shape="box"] ;
98 -> 108 ;
109 [label="X[0] <= 48.5000\ngini = 0.0239485766758\nsamples = 165", shape="box"] ;
79 -> 109 ;
110 [label="gini = 0.0000\nsamples = 133\nvalue = [ 133.    0.]", shape="box"] ;
109 -> 110 ;
111 [label="X[0] <= 49.5000\ngini = 0.1171875\nsamples = 32", shape="box"] ;
109 -> 111 ;
112 [label="X[9] <= 10.0000\ngini = 0.48\nsamples = 5", shape="box"] ;
111 -> 112 ;
113 [label="gini = 0.0000\nsamples = 2\nvalue = [ 0.  2.]", shape="box"] ;
112 -> 113 ;
114 [label="gini = 0.0000\nsamples = 3\nvalue = [ 3.  0.]", shape="box"] ;
112 -> 114 ;
115 [label="gini = 0.0000\nsamples = 27\nvalue = [ 27.   0.]", shape="box"] ;
111 -> 115 ;
116 [label="X[9] <= 9.0000\ngini = 0.5\nsamples = 2", shape="box"] ;
76 -> 116 ;
117 [label="gini = 0.0000\nsamples = 1\nvalue = [ 1.  0.]", shape="box"] ;
116 -> 117 ;
118 [label="gini = 0.0000\nsamples = 1\nvalue = [ 0.  1.]", shape="box"] ;
116 -> 118 ;
119 [label="gini = 0.0000\nsamples = 351\nvalue = [ 351.    0.]", shape="box"] ;
75 -> 119 ;
120 [label="X[0] <= 25.5000\ngini = 0.00481924899064\nsamples = 828", shape="box"] ;
74 -> 120 ;
121 [label="X[11] <= 169.0000\ngini = 0.104938271605\nsamples = 18", shape="box"] ;
120 -> 121 ;
122 [label="gini = 0.0000\nsamples = 16\nvalue = [ 16.   0.]", shape="box"] ;
121 -> 122 ;
123 [label="X[11] <= 184.5000\ngini = 0.5\nsamples = 2", shape="box"] ;
121 -> 123 ;
124 [label="gini = 0.0000\nsamples = 1\nvalue = [ 0.  1.]", shape="box"] ;
123 -> 124 ;
125 [label="gini = 0.0000\nsamples = 1\nvalue = [ 1.  0.]", shape="box"] ;
123 -> 125 ;
126 [label="X[10] <= 2.0000\ngini = 0.00246608748666\nsamples = 810", shape="box"] ;
120 -> 126 ;
127 [label="X[9] <= 20.5000\ngini = 0.011428193949\nsamples = 174", shape="box"] ;
126 -> 127 ;
128 [label="X[11] <= 78.5000\ngini = 0.0407986111111\nsamples = 48", shape="box"] ;
127 -> 128 ;
129 [label="X[11] <= 76.5000\ngini = 0.18\nsamples = 10", shape="box"] ;
128 -> 129 ;
130 [label="gini = 0.0000\nsamples = 9\nvalue = [ 9.  0.]", shape="box"] ;
129 -> 130 ;
131 [label="gini = 0.0000\nsamples = 1\nvalue = [ 0.  1.]", shape="box"] ;
129 -> 131 ;
132 [label="gini = 0.0000\nsamples = 38\nvalue = [ 38.   0.]", shape="box"] ;
128 -> 132 ;
133 [label="gini = 0.0000\nsamples = 126\nvalue = [ 126.    0.]", shape="box"] ;
127 -> 133 ;
134 [label="gini = 0.0000\nsamples = 636\nvalue = [ 636.    0.]", shape="box"] ;
126 -> 134 ;
135 [label="X[5] <= 3.5000\ngini = 0.207612456747\nsamples = 34", shape="box"] ;
57 -> 135 ;
136 [label="X[6] <= 0.5000\ngini = 0.5\nsamples = 6", shape="box"] ;
135 -> 136 ;
137 [label="gini = 0.0000\nsamples = 3\nvalue = [ 3.  0.]", shape="box"] ;
136 -> 137 ;
138 [label="gini = 0.0000\nsamples = 3\nvalue = [ 0.  3.]", shape="box"] ;
136 -> 138 ;
139 [label="X[5] <= 3007.5000\ngini = 0.0688775510204\nsamples = 28", shape="box"] ;
135 -> 139 ;
140 [label="gini = 0.0000\nsamples = 24\nvalue = [ 24.   0.]", shape="box"] ;
139 -> 140 ;
141 [label="X[3] <= 1.5000\ngini = 0.375\nsamples = 4", shape="box"] ;
139 -> 141 ;
142 [label="gini = 0.0000\nsamples = 3\nvalue = [ 3.  0.]", shape="box"] ;
141 -> 142 ;
143 [label="gini = 0.0000\nsamples = 1\nvalue = [ 0.  1.]", shape="box"] ;
141 -> 143 ;
144 [label="X[5] <= 2720.0000\ngini = 0.432132963989\nsamples = 19", shape="box"] ;
4 -> 144 ;
145 [label="X[0] <= 86.5000\ngini = 0.260355029586\nsamples = 13", shape="box"] ;
144 -> 145 ;
146 [label="X[9] <= 6.0000\ngini = 0.152777777778\nsamples = 12", shape="box"] ;
145 -> 146 ;
147 [label="gini = 0.0000\nsamples = 1\nvalue = [ 0.  1.]", shape="box"] ;
146 -> 147 ;
148 [label="gini = 0.0000\nsamples = 11\nvalue = [ 11.   0.]", shape="box"] ;
146 -> 148 ;
149 [label="gini = 0.0000\nsamples = 1\nvalue = [ 0.  1.]", shape="box"] ;
145 -> 149 ;
150 [label="X[0] <= 78.0000\ngini = 0.444444444444\nsamples = 6", shape="box"] ;
144 -> 150 ;
151 [label="gini = 0.0000\nsamples = 4\nvalue = [ 0.  4.]", shape="box"] ;
150 -> 151 ;
152 [label="gini = 0.0000\nsamples = 2\nvalue = [ 2.  0.]", shape="box"] ;
150 -> 152 ;
153 [label="X[13] <= 33.0000\ngini = 0.276752532439\nsamples = 1302", shape="box"] ;
1 -> 153 ;
154 [label="X[0] <= 60.5000\ngini = 0.210792193303\nsamples = 1044", shape="box"] ;
153 -> 154 ;
155 [label="X[9] <= 1.5000\ngini = 0.187707717579\nsamples = 1011", shape="box"] ;
154 -> 155 ;
156 [label="X[5] <= 1509.0000\ngini = 0.277777777778\nsamples = 6", shape="box"] ;
155 -> 156 ;
157 [label="gini = 0.0000\nsamples = 5\nvalue = [ 0.  5.]", shape="box"] ;
156 -> 157 ;
158 [label="gini = 0.0000\nsamples = 1\nvalue = [ 1.  0.]", shape="box"] ;
156 -> 158 ;
159 [label="X[10] <= 9.5000\ngini = 0.180795524863\nsamples = 1005", shape="box"] ;
155 -> 159 ;
160 [label="X[11] <= 457.5000\ngini = 0.167701306398\nsamples = 985", shape="box"] ;
159 -> 160 ;
161 [label="X[10] <= 0.5000\ngini = 0.122835758158\nsamples = 791", shape="box"] ;
160 -> 161 ;
162 [label="X[9] <= 20.5000\ngini = 0.3648\nsamples = 50", shape="box"] ;
161 -> 162 ;
163 [label="X[9] <= 2.5000\ngini = 0.145429362881\nsamples = 38", shape="box"] ;
162 -> 163 ;
164 [label="gini = 0.0000\nsamples = 1\nvalue = [ 0.  1.]", shape="box"] ;
163 -> 164 ;
165 [label="X[12] <= 3.5000\ngini = 0.102264426589\nsamples = 37", shape="box"] ;
163 -> 165 ;
166 [label="gini = 0.0000\nsamples = 32\nvalue = [ 32.   0.]", shape="box"] ;
165 -> 166 ;
167 [label="X[11] <= 291.5000\ngini = 0.48\nsamples = 5", shape="box"] ;
165 -> 167 ;
168 [label="gini = 0.0000\nsamples = 3\nvalue = [ 3.  0.]", shape="box"] ;
167 -> 168 ;
169 [label="gini = 0.0000\nsamples = 2\nvalue = [ 0.  2.]", shape="box"] ;
167 -> 169 ;
170 [label="X[11] <= 238.5000\ngini = 0.375\nsamples = 12", shape="box"] ;
162 -> 170 ;
171 [label="gini = 0.0000\nsamples = 3\nvalue = [ 3.  0.]", shape="box"] ;
170 -> 171 ;
172 [label="gini = 0.0000\nsamples = 9\nvalue = [ 0.  9.]", shape="box"] ;
170 -> 172 ;
173 [label="X[8] <= 1.5000\ngini = 0.102134293483\nsamples = 741", shape="box"] ;
161 -> 173 ;
174 [label="X[9] <= 4.5000\ngini = 0.155970608847\nsamples = 434", shape="box"] ;
173 -> 174 ;
175 [label="X[10] <= 4.0000\ngini = 0.375\nsamples = 32", shape="box"] ;
174 -> 175 ;
176 [label="X[3] <= 0.5000\ngini = 0.0867768595041\nsamples = 22", shape="box"] ;
175 -> 176 ;
177 [label="X[11] <= 312.5000\ngini = 0.444444444444\nsamples = 3", shape="box"] ;
176 -> 177 ;
178 [label="gini = 0.0000\nsamples = 2\nvalue = [ 2.  0.]", shape="box"] ;
177 -> 178 ;
179 [label="gini = 0.0000\nsamples = 1\nvalue = [ 0.  1.]", shape="box"] ;
177 -> 179 ;
180 [label="gini = 0.0000\nsamples = 19\nvalue = [ 19.   0.]", shape="box"] ;
176 -> 180 ;
181 [label="X[5] <= 129.5000\ngini = 0.42\nsamples = 10", shape="box"] ;
175 -> 181 ;
182 [label="gini = 0.0000\nsamples = 2\nvalue = [ 2.  0.]", shape="box"] ;
181 -> 182 ;
183 [label="X[3] <= 1.5000\ngini = 0.21875\nsamples = 8", shape="box"] ;
181 -> 183 ;
184 [label="gini = 0.0000\nsamples = 6\nvalue = [ 0.  6.]", shape="box"] ;
183 -> 184 ;
185 [label="X[12] <= 2.5000\ngini = 0.5\nsamples = 2", shape="box"] ;
183 -> 185 ;
186 [label="gini = 0.0000\nsamples = 1\nvalue = [ 1.  0.]", shape="box"] ;
185 -> 186 ;
187 [label="gini = 0.0000\nsamples = 1\nvalue = [ 0.  1.]", shape="box"] ;
185 -> 187 ;
188 [label="X[9] <= 23.5000\ngini = 0.133870448751\nsamples = 402", shape="box"] ;
174 -> 188 ;
189 [label="X[0] <= 30.5000\ngini = 0.104634319527\nsamples = 325", shape="box"] ;
188 -> 189 ;
190 [label="X[11] <= 274.5000\ngini = 0.262716049383\nsamples = 45", shape="box"] ;
189 -> 190 ;
191 [label="gini = 0.0000\nsamples = 20\nvalue = [ 20.   0.]", shape="box"] ;
190 -> 191 ;
192 [label="X[5] <= -173.0000\ngini = 0.4032\nsamples = 25", shape="box"] ;
190 -> 192 ;
193 [label="gini = 0.0000\nsamples = 2\nvalue = [ 0.  2.]", shape="box"] ;
192 -> 193 ;
194 [label="X[5] <= 664.5000\ngini = 0.340264650284\nsamples = 23", shape="box"] ;
192 -> 194 ;
195 [label="X[7] <= 0.5000\ngini = 0.207612456747\nsamples = 17", shape="box"] ;
194 -> 195 ;
196 [label="X[0] <= 29.5000\ngini = 0.1171875\nsamples = 16", shape="box"] ;
195 -> 196 ;
197 [label="gini = 0.0000\nsamples = 12\nvalue = [ 12.   0.]", shape="box"] ;
196 -> 197 ;
198 [label="X[11] <= 341.5000\ngini = 0.375\nsamples = 4", shape="box"] ;
196 -> 198 ;
199 [label="gini = 0.0000\nsamples = 1\nvalue = [ 0.  1.]", shape="box"] ;
198 -> 199 ;
200 [label="gini = 0.0000\nsamples = 3\nvalue = [ 3.  0.]", shape="box"] ;
198 -> 200 ;
201 [label="gini = 0.0000\nsamples = 1\nvalue = [ 0.  1.]", shape="box"] ;
195 -> 201 ;
202 [label="X[6] <= 0.5000\ngini = 0.5\nsamples = 6", shape="box"] ;
194 -> 202 ;
203 [label="X[10] <= 3.0000\ngini = 0.375\nsamples = 4", shape="box"] ;
202 -> 203 ;
204 [label="X[5] <= 1269.0000\ngini = 0.5\nsamples = 2", shape="box"] ;
203 -> 204 ;
205 [label="gini = 0.0000\nsamples = 1\nvalue = [ 0.  1.]", shape="box"] ;
204 -> 205 ;
206 [label="gini = 0.0000\nsamples = 1\nvalue = [ 1.  0.]", shape="box"] ;
204 -> 206 ;
207 [label="gini = 0.0000\nsamples = 2\nvalue = [ 0.  2.]", shape="box"] ;
203 -> 207 ;
208 [label="gini = 0.0000\nsamples = 2\nvalue = [ 2.  0.]", shape="box"] ;
202 -> 208 ;
209 [label="X[9] <= 11.5000\ngini = 0.0754846938776\nsamples = 280", shape="box"] ;
189 -> 209 ;
210 [label="X[5] <= -615.5000\ngini = 0.1472\nsamples = 100", shape="box"] ;
209 -> 210 ;
211 [label="X[12] <= 3.5000\ngini = 0.5\nsamples = 2", shape="box"] ;
210 -> 211 ;
212 [label="gini = 0.0000\nsamples = 1\nvalue = [ 0.  1.]", shape="box"] ;
211 -> 212 ;
213 [label="gini = 0.0000\nsamples = 1\nvalue = [ 1.  0.]", shape="box"] ;
211 -> 213 ;
214 [label="X[5] <= 2276.0000\ngini = 0.132653061224\nsamples = 98", shape="box"] ;
210 -> 214 ;
215 [label="X[11] <= 350.0000\ngini = 0.0748861528082\nsamples = 77", shape="box"] ;
214 -> 215 ;
216 [label="gini = 0.0000\nsamples = 55\nvalue = [ 55.   0.]", shape="box"] ;
215 -> 216 ;
217 [label="X[8] <= 0.5000\ngini = 0.235537190083\nsamples = 22", shape="box"] ;
215 -> 217 ;
218 [label="X[11] <= 353.5000\ngini = 0.172335600907\nsamples = 21", shape="box"] ;
217 -> 218 ;
219 [label="gini = 0.0000\nsamples = 1\nvalue = [ 0.  1.]", shape="box"] ;
218 -> 219 ;
220 [label="X[5] <= 12.5000\ngini = 0.095\nsamples = 20", shape="box"] ;
218 -> 220 ;
221 [label="X[3] <= 1.5000\ngini = 0.444444444444\nsamples = 3", shape="box"] ;
220 -> 221 ;
222 [label="gini = 0.0000\nsamples = 2\nvalue = [ 2.  0.]", shape="box"] ;
221 -> 222 ;
223 [label="gini = 0.0000\nsamples = 1\nvalue = [ 0.  1.]", shape="box"] ;
221 -> 223 ;
224 [label="gini = 0.0000\nsamples = 17\nvalue = [ 17.   0.]", shape="box"] ;
220 -> 224 ;
225 [label="gini = 0.0000\nsamples = 1\nvalue = [ 0.  1.]", shape="box"] ;
217 -> 225 ;
226 [label="X[12] <= 3.5000\ngini = 0.308390022676\nsamples = 21", shape="box"] ;
214 -> 226 ;
227 [label="X[10] <= 8.5000\ngini = 0.124444444444\nsamples = 15", shape="box"] ;
226 -> 227 ;
228 [label="gini = 0.0000\nsamples = 14\nvalue = [ 14.   0.]", shape="box"] ;
227 -> 228 ;
229 [label="gini = 0.0000\nsamples = 1\nvalue = [ 0.  1.]", shape="box"] ;
227 -> 229 ;
230 [label="X[1] <= 3.0000\ngini = 0.5\nsamples = 6", shape="box"] ;
226 -> 230 ;
231 [label="gini = 0.0000\nsamples = 2\nvalue = [ 2.  0.]", shape="box"] ;
230 -> 231 ;
232 [label="X[5] <= 4300.5000\ngini = 0.375\nsamples = 4", shape="box"] ;
230 -> 232 ;
233 [label="gini = 0.0000\nsamples = 3\nvalue = [ 0.  3.]", shape="box"] ;
232 -> 233 ;
234 [label="gini = 0.0000\nsamples = 1\nvalue = [ 1.  0.]", shape="box"] ;
232 -> 234 ;
235 [label="X[11] <= 224.5000\ngini = 0.0327777777778\nsamples = 180", shape="box"] ;
209 -> 235 ;
236 [label="X[5] <= 1027.0000\ngini = 0.197530864198\nsamples = 18", shape="box"] ;
235 -> 236 ;
237 [label="gini = 0.0000\nsamples = 11\nvalue = [ 11.   0.]", shape="box"] ;
236 -> 237 ;
238 [label="X[0] <= 43.0000\ngini = 0.408163265306\nsamples = 7", shape="box"] ;
236 -> 238 ;
239 [label="X[7] <= 0.5000\ngini = 0.444444444444\nsamples = 3", shape="box"] ;
238 -> 239 ;
240 [label="gini = 0.0000\nsamples = 2\nvalue = [ 0.  2.]", shape="box"] ;
239 -> 240 ;
241 [label="gini = 0.0000\nsamples = 1\nvalue = [ 1.  0.]", shape="box"] ;
239 -> 241 ;
242 [label="gini = 0.0000\nsamples = 4\nvalue = [ 4.  0.]", shape="box"] ;
238 -> 242 ;
243 [label="X[11] <= 441.5000\ngini = 0.0122694711172\nsamples = 162", shape="box"] ;
235 -> 243 ;
244 [label="gini = 0.0000\nsamples = 151\nvalue = [ 151.    0.]", shape="box"] ;
243 -> 244 ;
245 [label="X[12] <= 1.5000\ngini = 0.165289256198\nsamples = 11", shape="box"] ;
243 -> 245 ;
246 [label="X[3] <= 1.0000\ngini = 0.5\nsamples = 2", shape="box"] ;
245 -> 246 ;
247 [label="gini = 0.0000\nsamples = 1\nvalue = [ 1.  0.]", shape="box"] ;
246 -> 247 ;
248 [label="gini = 0.0000\nsamples = 1\nvalue = [ 0.  1.]", shape="box"] ;
246 -> 248 ;
249 [label="gini = 0.0000\nsamples = 9\nvalue = [ 9.  0.]", shape="box"] ;
245 -> 249 ;
250 [label="X[5] <= 8710.0000\ngini = 0.244897959184\nsamples = 77", shape="box"] ;
188 -> 250 ;
251 [label="X[10] <= 5.5000\ngini = 0.2112\nsamples = 75", shape="box"] ;
250 -> 251 ;
252 [label="X[9] <= 26.5000\ngini = 0.158790170132\nsamples = 69", shape="box"] ;
251 -> 252 ;
253 [label="X[3] <= 2.5000\ngini = 0.362811791383\nsamples = 21", shape="box"] ;
252 -> 253 ;
254 [label="X[0] <= 48.5000\ngini = 0.32\nsamples = 20", shape="box"] ;
253 -> 254 ;
255 [label="X[0] <= 41.0000\ngini = 0.391111111111\nsamples = 15", shape="box"] ;
254 -> 255 ;
256 [label="X[8] <= 0.5000\ngini = 0.21875\nsamples = 8", shape="box"] ;
255 -> 256 ;
257 [label="gini = 0.0000\nsamples = 6\nvalue = [ 6.  0.]", shape="box"] ;
256 -> 257 ;
258 [label="X[0] <= 34.5000\ngini = 0.5\nsamples = 2", shape="box"] ;
256 -> 258 ;
259 [label="gini = 0.0000\nsamples = 1\nvalue = [ 0.  1.]", shape="box"] ;
258 -> 259 ;
260 [label="gini = 0.0000\nsamples = 1\nvalue = [ 1.  0.]", shape="box"] ;
258 -> 260 ;
261 [label="X[3] <= 0.5000\ngini = 0.489795918367\nsamples = 7", shape="box"] ;
255 -> 261 ;
262 [label="gini = 0.0000\nsamples = 2\nvalue = [ 2.  0.]", shape="box"] ;
261 -> 262 ;
263 [label="X[5] <= 327.5000\ngini = 0.48\nsamples = 5", shape="box"] ;
261 -> 263 ;
264 [label="gini = 0.0000\nsamples = 2\nvalue = [ 0.  2.]", shape="box"] ;
263 -> 264 ;
265 [label="X[5] <= 1279.5000\ngini = 0.444444444444\nsamples = 3", shape="box"] ;
263 -> 265 ;
266 [label="gini = 0.0000\nsamples = 2\nvalue = [ 2.  0.]", shape="box"] ;
265 -> 266 ;
267 [label="gini = 0.0000\nsamples = 1\nvalue = [ 0.  1.]", shape="box"] ;
265 -> 267 ;
268 [label="gini = 0.0000\nsamples = 5\nvalue = [ 5.  0.]", shape="box"] ;
254 -> 268 ;
269 [label="gini = 0.0000\nsamples = 1\nvalue = [ 0.  1.]", shape="box"] ;
253 -> 269 ;
270 [label="X[0] <= 27.5000\ngini = 0.0407986111111\nsamples = 48", shape="box"] ;
252 -> 270 ;
271 [label="X[10] <= 4.5000\ngini = 0.32\nsamples = 5", shape="box"] ;
270 -> 271 ;
272 [label="gini = 0.0000\nsamples = 4\nvalue = [ 4.  0.]", shape="box"] ;
271 -> 272 ;
273 [label="gini = 0.0000\nsamples = 1\nvalue = [ 0.  1.]", shape="box"] ;
271 -> 273 ;
274 [label="gini = 0.0000\nsamples = 43\nvalue = [ 43.   0.]", shape="box"] ;
270 -> 274 ;
275 [label="X[11] <= 244.5000\ngini = 0.5\nsamples = 6", shape="box"] ;
251 -> 275 ;
276 [label="gini = 0.0000\nsamples = 3\nvalue = [ 0.  3.]", shape="box"] ;
275 -> 276 ;
277 [label="gini = 0.0000\nsamples = 3\nvalue = [ 3.  0.]", shape="box"] ;
275 -> 277 ;
278 [label="gini = 0.0000\nsamples = 2\nvalue = [ 0.  2.]", shape="box"] ;
250 -> 278 ;
279 [label="X[10] <= 8.5000\ngini = 0.0193529904827\nsamples = 307", shape="box"] ;
173 -> 279 ;
280 [label="X[0] <= 23.5000\ngini = 0.0129864581998\nsamples = 306", shape="box"] ;
279 -> 280 ;
281 [label="X[9] <= 8.0000\ngini = 0.5\nsamples = 2", shape="box"] ;
280 -> 281 ;
282 [label="gini = 0.0000\nsamples = 1\nvalue = [ 1.  0.]", shape="box"] ;
281 -> 282 ;
283 [label="gini = 0.0000\nsamples = 1\nvalue = [ 0.  1.]", shape="box"] ;
281 -> 283 ;
284 [label="X[11] <= 441.5000\ngini = 0.00655730609418\nsamples = 304", shape="box"] ;
280 -> 284 ;
285 [label="gini = 0.0000\nsamples = 296\nvalue = [ 296.    0.]", shape="box"] ;
284 -> 285 ;
286 [label="X[5] <= 3977.0000\ngini = 0.21875\nsamples = 8", shape="box"] ;
284 -> 286 ;
287 [label="gini = 0.0000\nsamples = 7\nvalue = [ 7.  0.]", shape="box"] ;
286 -> 287 ;
288 [label="gini = 0.0000\nsamples = 1\nvalue = [ 0.  1.]", shape="box"] ;
286 -> 288 ;
289 [label="gini = 0.0000\nsamples = 1\nvalue = [ 0.  1.]", shape="box"] ;
279 -> 289 ;
290 [label="X[11] <= 460.5000\ngini = 0.321234987778\nsamples = 194", shape="box"] ;
160 -> 290 ;
291 [label="gini = 0.0000\nsamples = 2\nvalue = [ 0.  2.]", shape="box"] ;
290 -> 291 ;
292 [label="X[7] <= 0.5000\ngini = 0.311143663194\nsamples = 192", shape="box"] ;
290 -> 292 ;
293 [label="X[12] <= 6.5000\ngini = 0.344896651178\nsamples = 158", shape="box"] ;
292 -> 293 ;
294 [label="X[9] <= 4.5000\ngini = 0.36970022984\nsamples = 143", shape="box"] ;
293 -> 294 ;
295 [label="X[3] <= 1.5000\ngini = 0.489795918367\nsamples = 7", shape="box"] ;
294 -> 295 ;
296 [label="X[12] <= 1.5000\ngini = 0.375\nsamples = 4", shape="box"] ;
295 -> 296 ;
297 [label="gini = 0.0000\nsamples = 1\nvalue = [ 0.  1.]", shape="box"] ;
296 -> 297 ;
298 [label="gini = 0.0000\nsamples = 3\nvalue = [ 3.  0.]", shape="box"] ;
296 -> 298 ;
299 [label="gini = 0.0000\nsamples = 3\nvalue = [ 0.  3.]", shape="box"] ;
295 -> 299 ;
300 [label="X[3] <= 0.5000\ngini = 0.35196799308\nsamples = 136", shape="box"] ;
294 -> 300 ;
301 [label="X[5] <= 1535.5000\ngini = 0.487534626039\nsamples = 19", shape="box"] ;
300 -> 301 ;
302 [label="X[5] <= 177.5000\ngini = 0.375\nsamples = 12", shape="box"] ;
301 -> 302 ;
303 [label="X[11] <= 520.0000\ngini = 0.48\nsamples = 5", shape="box"] ;
302 -> 303 ;
304 [label="gini = 0.0000\nsamples = 2\nvalue = [ 0.  2.]", shape="box"] ;
303 -> 304 ;
305 [label="X[9] <= 19.5000\ngini = 0.444444444444\nsamples = 3", shape="box"] ;
303 -> 305 ;
306 [label="gini = 0.0000\nsamples = 2\nvalue = [ 2.  0.]", shape="box"] ;
305 -> 306 ;
307 [label="gini = 0.0000\nsamples = 1\nvalue = [ 0.  1.]", shape="box"] ;
305 -> 307 ;
308 [label="gini = 0.0000\nsamples = 7\nvalue = [ 7.  0.]", shape="box"] ;
302 -> 308 ;
309 [label="X[5] <= 7274.0000\ngini = 0.408163265306\nsamples = 7", shape="box"] ;
301 -> 309 ;
310 [label="gini = 0.0000\nsamples = 5\nvalue = [ 0.  5.]", shape="box"] ;
309 -> 310 ;
311 [label="gini = 0.0000\nsamples = 2\nvalue = [ 2.  0.]", shape="box"] ;
309 -> 311 ;
312 [label="X[3] <= 1.5000\ngini = 0.315874059464\nsamples = 117", shape="box"] ;
300 -> 312 ;
313 [label="X[11] <= 540.0000\ngini = 0.233747260774\nsamples = 74", shape="box"] ;
312 -> 313 ;
314 [label="X[10] <= 3.5000\ngini = 0.104938271605\nsamples = 36", shape="box"] ;
313 -> 314 ;
315 [label="X[0] <= 34.0000\ngini = 0.444444444444\nsamples = 6", shape="box"] ;
314 -> 315 ;
316 [label="X[9] <= 7.0000\ngini = 0.444444444444\nsamples = 3", shape="box"] ;
315 -> 316 ;
317 [label="gini = 0.0000\nsamples = 1\nvalue = [ 1.  0.]", shape="box"] ;
316 -> 317 ;
318 [label="gini = 0.0000\nsamples = 2\nvalue = [ 0.  2.]", shape="box"] ;
316 -> 318 ;
319 [label="gini = 0.0000\nsamples = 3\nvalue = [ 3.  0.]", shape="box"] ;
315 -> 319 ;
320 [label="gini = 0.0000\nsamples = 30\nvalue = [ 30.   0.]", shape="box"] ;
314 -> 320 ;
321 [label="X[11] <= 564.5000\ngini = 0.332409972299\nsamples = 38", shape="box"] ;
313 -> 321 ;
322 [label="X[2] <= 1.5000\ngini = 0.495867768595\nsamples = 11", shape="box"] ;
321 -> 322 ;
323 [label="X[0] <= 47.0000\ngini = 0.375\nsamples = 8", shape="box"] ;
322 -> 323 ;
324 [label="gini = 0.0000\nsamples = 6\nvalue = [ 6.  0.]", shape="box"] ;
323 -> 324 ;
325 [label="gini = 0.0000\nsamples = 2\nvalue = [ 0.  2.]", shape="box"] ;
323 -> 325 ;
326 [label="gini = 0.0000\nsamples = 3\nvalue = [ 0.  3.]", shape="box"] ;
322 -> 326 ;
327 [label="X[12] <= 2.5000\ngini = 0.197530864198\nsamples = 27", shape="box"] ;
321 -> 327 ;
328 [label="X[5] <= -128.5000\ngini = 0.0907029478458\nsamples = 21", shape="box"] ;
327 -> 328 ;
329 [label="X[10] <= 2.5000\ngini = 0.5\nsamples = 2", shape="box"] ;
328 -> 329 ;
330 [label="gini = 0.0000\nsamples = 1\nvalue = [ 1.  0.]", shape="box"] ;
329 -> 330 ;
331 [label="gini = 0.0000\nsamples = 1\nvalue = [ 0.  1.]", shape="box"] ;
329 -> 331 ;
332 [label="gini = 0.0000\nsamples = 19\nvalue = [ 19.   0.]", shape="box"] ;
328 -> 332 ;
333 [label="X[8] <= 1.0000\ngini = 0.444444444444\nsamples = 6", shape="box"] ;
327 -> 333 ;
334 [label="gini = 0.0000\nsamples = 1\nvalue = [ 0.  1.]", shape="box"] ;
333 -> 334 ;
335 [label="X[11] <= 578.0000\ngini = 0.32\nsamples = 5", shape="box"] ;
333 -> 335 ;
336 [label="gini = 0.0000\nsamples = 1\nvalue = [ 0.  1.]", shape="box"] ;
335 -> 336 ;
337 [label="gini = 0.0000\nsamples = 4\nvalue = [ 4.  0.]", shape="box"] ;
335 -> 337 ;
338 [label="X[9] <= 13.5000\ngini = 0.421849648459\nsamples = 43", shape="box"] ;
312 -> 338 ;
339 [label="X[9] <= 5.5000\ngini = 0.497777777778\nsamples = 15", shape="box"] ;
338 -> 339 ;
340 [label="gini = 0.0000\nsamples = 3\nvalue = [ 3.  0.]", shape="box"] ;
339 -> 340 ;
341 [label="X[10] <= 0.5000\ngini = 0.444444444444\nsamples = 12", shape="box"] ;
339 -> 341 ;
342 [label="gini = 0.0000\nsamples = 2\nvalue = [ 2.  0.]", shape="box"] ;
341 -> 342 ;
343 [label="X[5] <= 1143.5000\ngini = 0.32\nsamples = 10", shape="box"] ;
341 -> 343 ;
344 [label="gini = 0.0000\nsamples = 6\nvalue = [ 0.  6.]", shape="box"] ;
343 -> 344 ;
345 [label="X[1] <= 6.5000\ngini = 0.5\nsamples = 4", shape="box"] ;
343 -> 345 ;
346 [label="X[0] <= 46.5000\ngini = 0.444444444444\nsamples = 3", shape="box"] ;
345 -> 346 ;
347 [label="gini = 0.0000\nsamples = 2\nvalue = [ 0.  2.]", shape="box"] ;
346 -> 347 ;
348 [label="gini = 0.0000\nsamples = 1\nvalue = [ 1.  0.]", shape="box"] ;
346 -> 348 ;
349 [label="gini = 0.0000\nsamples = 1\nvalue = [ 1.  0.]", shape="box"] ;
345 -> 349 ;
350 [label="X[9] <= 29.5000\ngini = 0.293367346939\nsamples = 28", shape="box"] ;
338 -> 350 ;
351 [label="X[5] <= 2092.5000\ngini = 0.252400548697\nsamples = 27", shape="box"] ;
350 -> 351 ;
352 [label="X[11] <= 482.0000\ngini = 0.095\nsamples = 20", shape="box"] ;
351 -> 352 ;
353 [label="X[5] <= 1314.0000\ngini = 0.375\nsamples = 4", shape="box"] ;
352 -> 353 ;
354 [label="gini = 0.0000\nsamples = 3\nvalue = [ 3.  0.]", shape="box"] ;
353 -> 354 ;
355 [label="gini = 0.0000\nsamples = 1\nvalue = [ 0.  1.]", shape="box"] ;
353 -> 355 ;
356 [label="gini = 0.0000\nsamples = 16\nvalue = [ 16.   0.]", shape="box"] ;
352 -> 356 ;
357 [label="X[0] <= 42.5000\ngini = 0.489795918367\nsamples = 7", shape="box"] ;
351 -> 357 ;
358 [label="X[11] <= 609.0000\ngini = 0.375\nsamples = 4", shape="box"] ;
357 -> 358 ;
359 [label="gini = 0.0000\nsamples = 3\nvalue = [ 0.  3.]", shape="box"] ;
358 -> 359 ;
360 [label="gini = 0.0000\nsamples = 1\nvalue = [ 1.  0.]", shape="box"] ;
358 -> 360 ;
361 [label="gini = 0.0000\nsamples = 3\nvalue = [ 3.  0.]", shape="box"] ;
357 -> 361 ;
362 [label="gini = 0.0000\nsamples = 1\nvalue = [ 0.  1.]", shape="box"] ;
350 -> 362 ;
363 [label="gini = 0.0000\nsamples = 15\nvalue = [ 15.   0.]", shape="box"] ;
293 -> 363 ;
364 [label="X[4] <= 0.5000\ngini = 0.110726643599\nsamples = 34", shape="box"] ;
292 -> 364 ;
365 [label="X[0] <= 29.5000\ngini = 0.058769513315\nsamples = 33", shape="box"] ;
364 -> 365 ;
366 [label="X[5] <= 105.5000\ngini = 0.375\nsamples = 4", shape="box"] ;
365 -> 366 ;
367 [label="X[5] <= -249.0000\ngini = 0.5\nsamples = 2", shape="box"] ;
366 -> 367 ;
368 [label="gini = 0.0000\nsamples = 1\nvalue = [ 1.  0.]", shape="box"] ;
367 -> 368 ;
369 [label="gini = 0.0000\nsamples = 1\nvalue = [ 0.  1.]", shape="box"] ;
367 -> 369 ;
370 [label="gini = 0.0000\nsamples = 2\nvalue = [ 2.  0.]", shape="box"] ;
366 -> 370 ;
371 [label="gini = 0.0000\nsamples = 29\nvalue = [ 29.   0.]", shape="box"] ;
365 -> 371 ;
372 [label="gini = 0.0000\nsamples = 1\nvalue = [ 0.  1.]", shape="box"] ;
364 -> 372 ;
373 [label="X[5] <= 2082.0000\ngini = 0.5\nsamples = 20", shape="box"] ;
159 -> 373 ;
374 [label="X[9] <= 29.5000\ngini = 0.426035502959\nsamples = 13", shape="box"] ;
373 -> 374 ;
375 [label="X[0] <= 25.0000\ngini = 0.297520661157\nsamples = 11", shape="box"] ;
374 -> 375 ;
376 [label="gini = 0.0000\nsamples = 1\nvalue = [ 1.  0.]", shape="box"] ;
375 -> 376 ;
377 [label="X[10] <= 10.5000\ngini = 0.18\nsamples = 10", shape="box"] ;
375 -> 377 ;
378 [label="gini = 0.0000\nsamples = 7\nvalue = [ 0.  7.]", shape="box"] ;
377 -> 378 ;
379 [label="X[12] <= 1.5000\ngini = 0.444444444444\nsamples = 3", shape="box"] ;
377 -> 379 ;
380 [label="gini = 0.0000\nsamples = 1\nvalue = [ 0.  1.]", shape="box"] ;
379 -> 380 ;
381 [label="X[3] <= 1.0000\ngini = 0.5\nsamples = 2", shape="box"] ;
379 -> 381 ;
382 [label="gini = 0.0000\nsamples = 1\nvalue = [ 0.  1.]", shape="box"] ;
381 -> 382 ;
383 [label="gini = 0.0000\nsamples = 1\nvalue = [ 1.  0.]", shape="box"] ;
381 -> 383 ;
384 [label="gini = 0.0000\nsamples = 2\nvalue = [ 2.  0.]", shape="box"] ;
374 -> 384 ;
385 [label="X[11] <= 406.0000\ngini = 0.244897959184\nsamples = 7", shape="box"] ;
373 -> 385 ;
386 [label="gini = 0.0000\nsamples = 6\nvalue = [ 6.  0.]", shape="box"] ;
385 -> 386 ;
387 [label="gini = 0.0000\nsamples = 1\nvalue = [ 0.  1.]", shape="box"] ;
385 -> 387 ;
388 [label="X[11] <= 507.5000\ngini = 0.488521579431\nsamples = 33", shape="box"] ;
154 -> 388 ;
389 [label="X[11] <= 342.0000\ngini = 0.464444444444\nsamples = 30", shape="box"] ;
388 -> 389 ;
390 [label="X[0] <= 62.5000\ngini = 0.498269896194\nsamples = 17", shape="box"] ;
389 -> 390 ;
391 [label="gini = 0.0000\nsamples = 4\nvalue = [ 0.  4.]", shape="box"] ;
390 -> 391 ;
392 [label="X[0] <= 68.5000\ngini = 0.426035502959\nsamples = 13", shape="box"] ;
390 -> 392 ;
393 [label="X[10] <= 6.5000\ngini = 0.493827160494\nsamples = 9", shape="box"] ;
392 -> 393 ;
394 [label="X[1] <= 4.5000\ngini = 0.444444444444\nsamples = 6", shape="box"] ;
393 -> 394 ;
395 [label="gini = 0.0000\nsamples = 1\nvalue = [ 1.  0.]", shape="box"] ;
394 -> 395 ;
396 [label="X[11] <= 247.0000\ngini = 0.32\nsamples = 5", shape="box"] ;
394 -> 396 ;
397 [label="gini = 0.0000\nsamples = 1\nvalue = [ 1.  0.]", shape="box"] ;
396 -> 397 ;
398 [label="gini = 0.0000\nsamples = 4\nvalue = [ 0.  4.]", shape="box"] ;
396 -> 398 ;
399 [label="gini = 0.0000\nsamples = 3\nvalue = [ 3.  0.]", shape="box"] ;
393 -> 399 ;
400 [label="gini = 0.0000\nsamples = 4\nvalue = [ 4.  0.]", shape="box"] ;
392 -> 400 ;
401 [label="X[5] <= 4104.5000\ngini = 0.260355029586\nsamples = 13", shape="box"] ;
389 -> 401 ;
402 [label="gini = 0.0000\nsamples = 9\nvalue = [ 0.  9.]", shape="box"] ;
401 -> 402 ;
403 [label="X[5] <= 5570.5000\ngini = 0.5\nsamples = 4", shape="box"] ;
401 -> 403 ;
404 [label="gini = 0.0000\nsamples = 2\nvalue = [ 2.  0.]", shape="box"] ;
403 -> 404 ;
405 [label="gini = 0.0000\nsamples = 2\nvalue = [ 0.  2.]", shape="box"] ;
403 -> 405 ;
406 [label="gini = 0.0000\nsamples = 3\nvalue = [ 3.  0.]", shape="box"] ;
388 -> 406 ;
407 [label="X[15] <= 1.5000\ngini = 0.456613184304\nsamples = 258", shape="box"] ;
153 -> 407 ;
408 [label="X[13] <= 373.0000\ngini = 0.35955\nsamples = 200", shape="box"] ;
407 -> 408 ;
409 [label="X[10] <= 9.5000\ngini = 0.314884801657\nsamples = 189", shape="box"] ;
408 -> 409 ;
410 [label="X[13] <= 74.0000\ngini = 0.270048883604\nsamples = 174", shape="box"] ;
409 -> 410 ;
411 [label="X[5] <= 1524.0000\ngini = 0.32\nsamples = 5", shape="box"] ;
410 -> 411 ;
412 [label="X[9] <= 15.0000\ngini = 0.5\nsamples = 2", shape="box"] ;
411 -> 412 ;
413 [label="gini = 0.0000\nsamples = 1\nvalue = [ 1.  0.]", shape="box"] ;
412 -> 413 ;
414 [label="gini = 0.0000\nsamples = 1\nvalue = [ 0.  1.]", shape="box"] ;
412 -> 414 ;
415 [label="gini = 0.0000\nsamples = 3\nvalue = [ 0.  3.]", shape="box"] ;
411 -> 415 ;
416 [label="X[14] <= 1.5000\ngini = 0.243688946465\nsamples = 169", shape="box"] ;
410 -> 416 ;
417 [label="X[0] <= 72.5000\ngini = 0.08935546875\nsamples = 64", shape="box"] ;
416 -> 417 ;
418 [label="X[13] <= 93.5000\ngini = 0.031737773153\nsamples = 62", shape="box"] ;
417 -> 418 ;
419 [label="X[13] <= 91.5000\ngini = 0.375\nsamples = 4", shape="box"] ;
418 -> 419 ;
420 [label="gini = 0.0000\nsamples = 3\nvalue = [ 3.  0.]", shape="box"] ;
419 -> 420 ;
421 [label="gini = 0.0000\nsamples = 1\nvalue = [ 0.  1.]", shape="box"] ;
419 -> 421 ;
422 [label="gini = 0.0000\nsamples = 58\nvalue = [ 58.   0.]", shape="box"] ;
418 -> 422 ;
423 [label="gini = 0.0000\nsamples = 2\nvalue = [ 0.  2.]", shape="box"] ;
417 -> 423 ;
424 [label="X[1] <= 7.5000\ngini = 0.32\nsamples = 105", shape="box"] ;
416 -> 424 ;
425 [label="X[13] <= 277.5000\ngini = 0.371894528273\nsamples = 81", shape="box"] ;
424 -> 425 ;
426 [label="X[9] <= 13.5000\ngini = 0.444444444444\nsamples = 48", shape="box"] ;
425 -> 426 ;
427 [label="X[14] <= 4.5000\ngini = 0.473372781065\nsamples = 13", shape="box"] ;
426 -> 427 ;
428 [label="X[13] <= 215.5000\ngini = 0.32\nsamples = 10", shape="box"] ;
427 -> 428 ;
429 [label="gini = 0.0000\nsamples = 7\nvalue = [ 0.  7.]", shape="box"] ;
428 -> 429 ;
430 [label="X[11] <= 281.5000\ngini = 0.444444444444\nsamples = 3", shape="box"] ;
428 -> 430 ;
431 [label="gini = 0.0000\nsamples = 2\nvalue = [ 2.  0.]", shape="box"] ;
430 -> 431 ;
432 [label="gini = 0.0000\nsamples = 1\nvalue = [ 0.  1.]", shape="box"] ;
430 -> 432 ;
433 [label="gini = 0.0000\nsamples = 3\nvalue = [ 3.  0.]", shape="box"] ;
427 -> 433 ;
434 [label="X[0] <= 30.5000\ngini = 0.352653061224\nsamples = 35", shape="box"] ;
426 -> 434 ;
435 [label="gini = 0.0000\nsamples = 2\nvalue = [ 0.  2.]", shape="box"] ;
434 -> 435 ;
436 [label="X[13] <= 181.5000\ngini = 0.297520661157\nsamples = 33", shape="box"] ;
434 -> 436 ;
437 [label="X[12] <= 3.5000\ngini = 0.0907029478458\nsamples = 21", shape="box"] ;
436 -> 437 ;
438 [label="gini = 0.0000\nsamples = 19\nvalue = [ 19.   0.]", shape="box"] ;
437 -> 438 ;
439 [label="X[8] <= 0.5000\ngini = 0.5\nsamples = 2", shape="box"] ;
437 -> 439 ;
440 [label="gini = 0.0000\nsamples = 1\nvalue = [ 0.  1.]", shape="box"] ;
439 -> 440 ;
441 [label="gini = 0.0000\nsamples = 1\nvalue = [ 1.  0.]", shape="box"] ;
439 -> 441 ;
442 [label="X[1] <= 2.5000\ngini = 0.486111111111\nsamples = 12", shape="box"] ;
436 -> 442 ;
443 [label="gini = 0.0000\nsamples = 4\nvalue = [ 4.  0.]", shape="box"] ;
442 -> 443 ;
444 [label="X[10] <= 6.5000\ngini = 0.46875\nsamples = 8", shape="box"] ;
442 -> 444 ;
445 [label="gini = 0.0000\nsamples = 4\nvalue = [ 0.  4.]", shape="box"] ;
444 -> 445 ;
446 [label="X[13] <= 269.5000\ngini = 0.375\nsamples = 4", shape="box"] ;
444 -> 446 ;
447 [label="gini = 0.0000\nsamples = 3\nvalue = [ 3.  0.]", shape="box"] ;
446 -> 447 ;
448 [label="gini = 0.0000\nsamples = 1\nvalue = [ 0.  1.]", shape="box"] ;
446 -> 448 ;
449 [label="X[9] <= 17.0000\ngini = 0.213039485767\nsamples = 33", shape="box"] ;
425 -> 449 ;
450 [label="X[13] <= 363.5000\ngini = 0.124444444444\nsamples = 30", shape="box"] ;
449 -> 450 ;
451 [label="gini = 0.0000\nsamples = 23\nvalue = [ 23.   0.]", shape="box"] ;
450 -> 451 ;
452 [label="X[5] <= 550.0000\ngini = 0.408163265306\nsamples = 7", shape="box"] ;
450 -> 452 ;
453 [label="gini = 0.0000\nsamples = 4\nvalue = [ 4.  0.]", shape="box"] ;
452 -> 453 ;
454 [label="X[9] <= 13.5000\ngini = 0.444444444444\nsamples = 3", shape="box"] ;
452 -> 454 ;
455 [label="gini = 0.0000\nsamples = 2\nvalue = [ 0.  2.]", shape="box"] ;
454 -> 455 ;
456 [label="gini = 0.0000\nsamples = 1\nvalue = [ 1.  0.]", shape="box"] ;
454 -> 456 ;
457 [label="X[12] <= 3.0000\ngini = 0.444444444444\nsamples = 3", shape="box"] ;
449 -> 457 ;
458 [label="gini = 0.0000\nsamples = 1\nvalue = [ 1.  0.]", shape="box"] ;
457 -> 458 ;
459 [label="gini = 0.0000\nsamples = 2\nvalue = [ 0.  2.]", shape="box"] ;
457 -> 459 ;
460 [label="X[13] <= 97.5000\ngini = 0.0798611111111\nsamples = 24", shape="box"] ;
424 -> 460 ;
461 [label="X[13] <= 83.0000\ngini = 0.444444444444\nsamples = 3", shape="box"] ;
460 -> 461 ;
462 [label="gini = 0.0000\nsamples = 2\nvalue = [ 2.  0.]", shape="box"] ;
461 -> 462 ;
463 [label="gini = 0.0000\nsamples = 1\nvalue = [ 0.  1.]", shape="box"] ;
461 -> 463 ;
464 [label="gini = 0.0000\nsamples = 21\nvalue = [ 21.   0.]", shape="box"] ;
460 -> 464 ;
465 [label="X[9] <= 20.0000\ngini = 0.48\nsamples = 15", shape="box"] ;
409 -> 465 ;
466 [label="X[3] <= 1.5000\ngini = 0.444444444444\nsamples = 9", shape="box"] ;
465 -> 466 ;
467 [label="gini = 0.0000\nsamples = 3\nvalue = [ 3.  0.]", shape="box"] ;
466 -> 467 ;
468 [label="X[14] <= 2.5000\ngini = 0.5\nsamples = 6", shape="box"] ;
466 -> 468 ;
469 [label="gini = 0.0000\nsamples = 3\nvalue = [ 0.  3.]", shape="box"] ;
468 -> 469 ;
470 [label="gini = 0.0000\nsamples = 3\nvalue = [ 3.  0.]", shape="box"] ;
468 -> 470 ;
471 [label="gini = 0.0000\nsamples = 6\nvalue = [ 0.  6.]", shape="box"] ;
465 -> 471 ;
472 [label="X[5] <= 5477.5000\ngini = 0.165289256198\nsamples = 11", shape="box"] ;
408 -> 472 ;
473 [label="gini = 0.0000\nsamples = 10\nvalue = [  0.  10.]", shape="box"] ;
472 -> 473 ;
474 [label="gini = 0.0000\nsamples = 1\nvalue = [ 1.  0.]", shape="box"] ;
472 -> 474 ;
475 [label="X[5] <= 11133.5000\ngini = 0.366230677765\nsamples = 58", shape="box"] ;
407 -> 475 ;
476 [label="X[13] <= 190.5000\ngini = 0.336734693878\nsamples = 56", shape="box"] ;
475 -> 476 ;
477 [label="X[1] <= 8.5000\ngini = 0.240129799892\nsamples = 43", shape="box"] ;
476 -> 477 ;
478 [label="X[3] <= 0.5000\ngini = 0.124444444444\nsamples = 30", shape="box"] ;
477 -> 478 ;
479 [label="X[5] <= 537.0000\ngini = 0.5\nsamples = 2", shape="box"] ;
478 -> 479 ;
480 [label="gini = 0.0000\nsamples = 1\nvalue = [ 0.  1.]", shape="box"] ;
479 -> 480 ;
481 [label="gini = 0.0000\nsamples = 1\nvalue = [ 1.  0.]", shape="box"] ;
479 -> 481 ;
482 [label="X[11] <= 465.0000\ngini = 0.0688775510204\nsamples = 28", shape="box"] ;
478 -> 482 ;
483 [label="gini = 0.0000\nsamples = 23\nvalue = [  0.  23.]", shape="box"] ;
482 -> 483 ;
484 [label="X[11] <= 484.0000\ngini = 0.32\nsamples = 5", shape="box"] ;
482 -> 484 ;
485 [label="gini = 0.0000\nsamples = 1\nvalue = [ 1.  0.]", shape="box"] ;
484 -> 485 ;
486 [label="gini = 0.0000\nsamples = 4\nvalue = [ 0.  4.]", shape="box"] ;
484 -> 486 ;
487 [label="X[0] <= 44.0000\ngini = 0.426035502959\nsamples = 13", shape="box"] ;
477 -> 487 ;
488 [label="X[13] <= 91.5000\ngini = 0.197530864198\nsamples = 9", shape="box"] ;
487 -> 488 ;
489 [label="gini = 0.0000\nsamples = 1\nvalue = [ 1.  0.]", shape="box"] ;
488 -> 489 ;
490 [label="gini = 0.0000\nsamples = 8\nvalue = [ 0.  8.]", shape="box"] ;
488 -> 490 ;
491 [label="X[11] <= 399.5000\ngini = 0.375\nsamples = 4", shape="box"] ;
487 -> 491 ;
492 [label="gini = 0.0000\nsamples = 3\nvalue = [ 3.  0.]", shape="box"] ;
491 -> 492 ;
493 [label="gini = 0.0000\nsamples = 1\nvalue = [ 0.  1.]", shape="box"] ;
491 -> 493 ;
494 [label="X[11] <= 279.5000\ngini = 0.497041420118\nsamples = 13", shape="box"] ;
476 -> 494 ;
495 [label="gini = 0.0000\nsamples = 3\nvalue = [ 3.  0.]", shape="box"] ;
494 -> 495 ;
496 [label="X[1] <= 0.5000\ngini = 0.42\nsamples = 10", shape="box"] ;
494 -> 496 ;
497 [label="gini = 0.0000\nsamples = 3\nvalue = [ 3.  0.]", shape="box"] ;
496 -> 497 ;
498 [label="gini = 0.0000\nsamples = 7\nvalue = [ 0.  7.]", shape="box"] ;
496 -> 498 ;
499 [label="gini = 0.0000\nsamples = 2\nvalue = [ 2.  0.]", shape="box"] ;
475 -> 499 ;
500 [label="X[8] <= 0.5000\ngini = 0.499992986295\nsamples = 267", shape="box"] ;
0 -> 500 ;
501 [label="X[1] <= 3.5000\ngini = 0.488238172306\nsamples = 163", shape="box"] ;
500 -> 501 ;
502 [label="X[11] <= 1241.5000\ngini = 0.49560546875\nsamples = 64", shape="box"] ;
501 -> 502 ;
503 [label="X[13] <= 232.5000\ngini = 0.478596908442\nsamples = 58", shape="box"] ;
502 -> 503 ;
504 [label="X[5] <= -269.5000\ngini = 0.4488\nsamples = 50", shape="box"] ;
503 -> 504 ;
505 [label="gini = 0.0000\nsamples = 3\nvalue = [ 0.  3.]", shape="box"] ;
504 -> 505 ;
506 [label="X[11] <= 729.0000\ngini = 0.41828881847\nsamples = 47", shape="box"] ;
504 -> 506 ;
507 [label="X[5] <= 419.5000\ngini = 0.5\nsamples = 16", shape="box"] ;
506 -> 507 ;
508 [label="gini = 0.0000\nsamples = 5\nvalue = [ 5.  0.]", shape="box"] ;
507 -> 508 ;
509 [label="X[10] <= 3.0000\ngini = 0.396694214876\nsamples = 11", shape="box"] ;
507 -> 509 ;
510 [label="X[12] <= 3.0000\ngini = 0.444444444444\nsamples = 3", shape="box"] ;
509 -> 510 ;
511 [label="gini = 0.0000\nsamples = 2\nvalue = [ 2.  0.]", shape="box"] ;
510 -> 511 ;
512 [label="gini = 0.0000\nsamples = 1\nvalue = [ 0.  1.]", shape="box"] ;
510 -> 512 ;
513 [label="X[10] <= 8.5000\ngini = 0.21875\nsamples = 8", shape="box"] ;
509 -> 513 ;
514 [label="gini = 0.0000\nsamples = 7\nvalue = [ 0.  7.]", shape="box"] ;
513 -> 514 ;
515 [label="gini = 0.0000\nsamples = 1\nvalue = [ 1.  0.]", shape="box"] ;
513 -> 515 ;
516 [label="X[5] <= 771.5000\ngini = 0.312174817898\nsamples = 31", shape="box"] ;
506 -> 516 ;
517 [label="X[5] <= 677.5000\ngini = 0.456747404844\nsamples = 17", shape="box"] ;
516 -> 517 ;
518 [label="X[1] <= 0.5000\ngini = 0.391111111111\nsamples = 15", shape="box"] ;
517 -> 518 ;
519 [label="X[10] <= 4.5000\ngini = 0.444444444444\nsamples = 3", shape="box"] ;
518 -> 519 ;
520 [label="gini = 0.0000\nsamples = 1\nvalue = [ 1.  0.]", shape="box"] ;
519 -> 520 ;
521 [label="gini = 0.0000\nsamples = 2\nvalue = [ 0.  2.]", shape="box"] ;
519 -> 521 ;
522 [label="X[0] <= 30.0000\ngini = 0.277777777778\nsamples = 12", shape="box"] ;
518 -> 522 ;
523 [label="gini = 0.0000\nsamples = 1\nvalue = [ 0.  1.]", shape="box"] ;
522 -> 523 ;
524 [label="X[3] <= 1.5000\ngini = 0.165289256198\nsamples = 11", shape="box"] ;
522 -> 524 ;
525 [label="gini = 0.0000\nsamples = 8\nvalue = [ 8.  0.]", shape="box"] ;
524 -> 525 ;
526 [label="X[9] <= 13.5000\ngini = 0.444444444444\nsamples = 3", shape="box"] ;
524 -> 526 ;
527 [label="gini = 0.0000\nsamples = 2\nvalue = [ 2.  0.]", shape="box"] ;
526 -> 527 ;
528 [label="gini = 0.0000\nsamples = 1\nvalue = [ 0.  1.]", shape="box"] ;
526 -> 528 ;
529 [label="gini = 0.0000\nsamples = 2\nvalue = [ 0.  2.]", shape="box"] ;
517 -> 529 ;
530 [label="gini = 0.0000\nsamples = 14\nvalue = [ 14.   0.]", shape="box"] ;
516 -> 530 ;
531 [label="X[0] <= 52.5000\ngini = 0.375\nsamples = 8", shape="box"] ;
503 -> 531 ;
532 [label="X[14] <= 6.0000\ngini = 0.244897959184\nsamples = 7", shape="box"] ;
531 -> 532 ;
533 [label="gini = 0.0000\nsamples = 6\nvalue = [ 0.  6.]", shape="box"] ;
532 -> 533 ;
534 [label="gini = 0.0000\nsamples = 1\nvalue = [ 1.  0.]", shape="box"] ;
532 -> 534 ;
535 [label="gini = 0.0000\nsamples = 1\nvalue = [ 1.  0.]", shape="box"] ;
531 -> 535 ;
536 [label="gini = 0.0000\nsamples = 6\nvalue = [ 0.  6.]", shape="box"] ;
502 -> 536 ;
537 [label="X[3] <= 2.5000\ngini = 0.450974390368\nsamples = 99", shape="box"] ;
501 -> 537 ;
538 [label="X[0] <= 55.5000\ngini = 0.437282986111\nsamples = 96", shape="box"] ;
537 -> 538 ;
539 [label="X[5] <= 1.0000\ngini = 0.405259515571\nsamples = 85", shape="box"] ;
538 -> 539 ;
540 [label="X[5] <= -179.5000\ngini = 0.497041420118\nsamples = 13", shape="box"] ;
539 -> 540 ;
541 [label="X[5] <= -867.0000\ngini = 0.277777777778\nsamples = 6", shape="box"] ;
540 -> 541 ;
542 [label="gini = 0.0000\nsamples = 1\nvalue = [ 1.  0.]", shape="box"] ;
541 -> 542 ;
543 [label="gini = 0.0000\nsamples = 5\nvalue = [ 0.  5.]", shape="box"] ;
541 -> 543 ;
544 [label="X[11] <= 1540.5000\ngini = 0.244897959184\nsamples = 7", shape="box"] ;
540 -> 544 ;
545 [label="gini = 0.0000\nsamples = 6\nvalue = [ 6.  0.]", shape="box"] ;
544 -> 545 ;
546 [label="gini = 0.0000\nsamples = 1\nvalue = [ 0.  1.]", shape="box"] ;
544 -> 546 ;
547 [label="X[5] <= 192.0000\ngini = 0.360725308642\nsamples = 72", shape="box"] ;
539 -> 547 ;
548 [label="gini = 0.0000\nsamples = 13\nvalue = [  0.  13.]", shape="box"] ;
547 -> 548 ;
549 [label="X[10] <= 6.5000\ngini = 0.41022694628\nsamples = 59", shape="box"] ;
547 -> 549 ;
550 [label="X[2] <= 0.5000\ngini = 0.4672796106\nsamples = 43", shape="box"] ;
549 -> 550 ;
551 [label="gini = 0.0000\nsamples = 5\nvalue = [ 0.  5.]", shape="box"] ;
550 -> 551 ;
552 [label="X[9] <= 23.5000\ngini = 0.487534626039\nsamples = 38", shape="box"] ;
550 -> 552 ;
553 [label="X[0] <= 43.0000\ngini = 0.5\nsamples = 30", shape="box"] ;
552 -> 553 ;
554 [label="X[3] <= 0.5000\ngini = 0.465373961219\nsamples = 19", shape="box"] ;
553 -> 554 ;
555 [label="gini = 0.0000\nsamples = 2\nvalue = [ 0.  2.]", shape="box"] ;
554 -> 555 ;
556 [label="X[11] <= 664.5000\ngini = 0.415224913495\nsamples = 17", shape="box"] ;
554 -> 556 ;
557 [label="gini = 0.0000\nsamples = 2\nvalue = [ 0.  2.]", shape="box"] ;
556 -> 557 ;
558 [label="X[12] <= 6.5000\ngini = 0.32\nsamples = 15", shape="box"] ;
556 -> 558 ;
559 [label="X[3] <= 1.5000\ngini = 0.244897959184\nsamples = 14", shape="box"] ;
558 -> 559 ;
560 [label="gini = 0.0000\nsamples = 7\nvalue = [ 7.  0.]", shape="box"] ;
559 -> 560 ;
561 [label="X[5] <= 928.0000\ngini = 0.408163265306\nsamples = 7", shape="box"] ;
559 -> 561 ;
562 [label="X[9] <= 14.5000\ngini = 0.48\nsamples = 5", shape="box"] ;
561 -> 562 ;
563 [label="gini = 0.0000\nsamples = 1\nvalue = [ 0.  1.]", shape="box"] ;
562 -> 563 ;
564 [label="X[11] <= 1011.0000\ngini = 0.375\nsamples = 4", shape="box"] ;
562 -> 564 ;
565 [label="gini = 0.0000\nsamples = 3\nvalue = [ 3.  0.]", shape="box"] ;
564 -> 565 ;
566 [label="gini = 0.0000\nsamples = 1\nvalue = [ 0.  1.]", shape="box"] ;
564 -> 566 ;
567 [label="gini = 0.0000\nsamples = 2\nvalue = [ 2.  0.]", shape="box"] ;
561 -> 567 ;
568 [label="gini = 0.0000\nsamples = 1\nvalue = [ 0.  1.]", shape="box"] ;
558 -> 568 ;
569 [label="X[11] <= 758.0000\ngini = 0.396694214876\nsamples = 11", shape="box"] ;
553 -> 569 ;
570 [label="X[11] <= 708.0000\ngini = 0.375\nsamples = 4", shape="box"] ;
569 -> 570 ;
571 [label="gini = 0.0000\nsamples = 1\nvalue = [ 0.  1.]", shape="box"] ;
570 -> 571 ;
572 [label="gini = 0.0000\nsamples = 3\nvalue = [ 3.  0.]", shape="box"] ;
570 -> 572 ;
573 [label="gini = 0.0000\nsamples = 7\nvalue = [ 0.  7.]", shape="box"] ;
569 -> 573 ;
574 [label="X[5] <= 415.5000\ngini = 0.21875\nsamples = 8", shape="box"] ;
552 -> 574 ;
575 [label="gini = 0.0000\nsamples = 1\nvalue = [ 1.  0.]", shape="box"] ;
574 -> 575 ;
576 [label="gini = 0.0000\nsamples = 7\nvalue = [ 0.  7.]", shape="box"] ;
574 -> 576 ;
577 [label="X[11] <= 1224.5000\ngini = 0.1171875\nsamples = 16", shape="box"] ;
549 -> 577 ;
578 [label="gini = 0.0000\nsamples = 15\nvalue = [  0.  15.]", shape="box"] ;
577 -> 578 ;
579 [label="gini = 0.0000\nsamples = 1\nvalue = [ 1.  0.]", shape="box"] ;
577 -> 579 ;
580 [label="X[15] <= 2.5000\ngini = 0.462809917355\nsamples = 11", shape="box"] ;
538 -> 580 ;
581 [label="gini = 0.0000\nsamples = 3\nvalue = [ 0.  3.]", shape="box"] ;
580 -> 581 ;
582 [label="X[12] <= 5.0000\ngini = 0.21875\nsamples = 8", shape="box"] ;
580 -> 582 ;
583 [label="gini = 0.0000\nsamples = 7\nvalue = [ 7.  0.]", shape="box"] ;
582 -> 583 ;
584 [label="gini = 0.0000\nsamples = 1\nvalue = [ 0.  1.]", shape="box"] ;
582 -> 584 ;
585 [label="gini = 0.0000\nsamples = 3\nvalue = [ 3.  0.]", shape="box"] ;
537 -> 585 ;
586 [label="X[11] <= 1539.5000\ngini = 0.473372781065\nsamples = 104", shape="box"] ;
500 -> 586 ;
587 [label="X[0] <= 44.5000\ngini = 0.448931873738\nsamples = 97", shape="box"] ;
586 -> 587 ;
588 [label="X[2] <= 1.5000\ngini = 0.370575561711\nsamples = 57", shape="box"] ;
587 -> 588 ;
589 [label="X[9] <= 29.5000\ngini = 0.260355029586\nsamples = 39", shape="box"] ;
588 -> 589 ;
590 [label="X[12] <= 6.5000\ngini = 0.228531855956\nsamples = 38", shape="box"] ;
589 -> 590 ;
591 [label="X[3] <= 0.5000\ngini = 0.192841490139\nsamples = 37", shape="box"] ;
590 -> 591 ;
592 [label="X[0] <= 39.5000\ngini = 0.48\nsamples = 5", shape="box"] ;
591 -> 592 ;
593 [label="X[1] <= 2.0000\ngini = 0.444444444444\nsamples = 3", shape="box"] ;
592 -> 593 ;
594 [label="gini = 0.0000\nsamples = 2\nvalue = [ 0.  2.]", shape="box"] ;
593 -> 594 ;
595 [label="gini = 0.0000\nsamples = 1\nvalue = [ 1.  0.]", shape="box"] ;
593 -> 595 ;
596 [label="gini = 0.0000\nsamples = 2\nvalue = [ 2.  0.]", shape="box"] ;
592 -> 596 ;
597 [label="X[2] <= 0.5000\ngini = 0.1171875\nsamples = 32", shape="box"] ;
591 -> 597 ;
598 [label="X[5] <= 787.5000\ngini = 0.444444444444\nsamples = 3", shape="box"] ;
597 -> 598 ;
599 [label="gini = 0.0000\nsamples = 2\nvalue = [ 2.  0.]", shape="box"] ;
598 -> 599 ;
600 [label="gini = 0.0000\nsamples = 1\nvalue = [ 0.  1.]", shape="box"] ;
598 -> 600 ;
601 [label="X[0] <= 33.5000\ngini = 0.0665873959572\nsamples = 29", shape="box"] ;
597 -> 601 ;
602 [label="X[0] <= 32.5000\ngini = 0.21875\nsamples = 8", shape="box"] ;
601 -> 602 ;
603 [label="gini = 0.0000\nsamples = 6\nvalue = [ 6.  0.]", shape="box"] ;
602 -> 603 ;
604 [label="X[5] <= 210.5000\ngini = 0.5\nsamples = 2", shape="box"] ;
602 -> 604 ;
605 [label="gini = 0.0000\nsamples = 1\nvalue = [ 1.  0.]", shape="box"] ;
604 -> 605 ;
606 [label="gini = 0.0000\nsamples = 1\nvalue = [ 0.  1.]", shape="box"] ;
604 -> 606 ;
607 [label="gini = 0.0000\nsamples = 21\nvalue = [ 21.   0.]", shape="box"] ;
601 -> 607 ;
608 [label="gini = 0.0000\nsamples = 1\nvalue = [ 0.  1.]", shape="box"] ;
590 -> 608 ;
609 [label="gini = 0.0000\nsamples = 1\nvalue = [ 0.  1.]", shape="box"] ;
589 -> 609 ;
610 [label="X[12] <= 2.5000\ngini = 0.493827160494\nsamples = 18", shape="box"] ;
588 -> 610 ;
611 [label="X[11] <= 861.5000\ngini = 0.444444444444\nsamples = 12", shape="box"] ;
610 -> 611 ;
612 [label="gini = 0.0000\nsamples = 6\nvalue = [ 0.  6.]", shape="box"] ;
611 -> 612 ;
613 [label="X[0] <= 36.0000\ngini = 0.444444444444\nsamples = 6", shape="box"] ;
611 -> 613 ;
614 [label="gini = 0.0000\nsamples = 4\nvalue = [ 4.  0.]", shape="box"] ;
613 -> 614 ;
615 [label="gini = 0.0000\nsamples = 2\nvalue = [ 0.  2.]", shape="box"] ;
613 -> 615 ;
616 [label="gini = 0.0000\nsamples = 6\nvalue = [ 6.  0.]", shape="box"] ;
610 -> 616 ;
617 [label="X[0] <= 47.5000\ngini = 0.49875\nsamples = 40", shape="box"] ;
587 -> 617 ;
618 [label="X[11] <= 958.0000\ngini = 0.32\nsamples = 10", shape="box"] ;
617 -> 618 ;
619 [label="X[9] <= 27.0000\ngini = 0.48\nsamples = 5", shape="box"] ;
618 -> 619 ;
620 [label="X[7] <= 0.5000\ngini = 0.444444444444\nsamples = 3", shape="box"] ;
619 -> 620 ;
621 [label="gini = 0.0000\nsamples = 2\nvalue = [ 2.  0.]", shape="box"] ;
620 -> 621 ;
622 [label="gini = 0.0000\nsamples = 1\nvalue = [ 0.  1.]", shape="box"] ;
620 -> 622 ;
623 [label="gini = 0.0000\nsamples = 2\nvalue = [ 0.  2.]", shape="box"] ;
619 -> 623 ;
624 [label="gini = 0.0000\nsamples = 5\nvalue = [ 0.  5.]", shape="box"] ;
618 -> 624 ;
625 [label="X[0] <= 51.5000\ngini = 0.464444444444\nsamples = 30", shape="box"] ;
617 -> 625 ;
626 [label="X[5] <= 2034.0000\ngini = 0.18\nsamples = 10", shape="box"] ;
625 -> 626 ;
627 [label="gini = 0.0000\nsamples = 9\nvalue = [ 9.  0.]", shape="box"] ;
626 -> 627 ;
628 [label="gini = 0.0000\nsamples = 1\nvalue = [ 0.  1.]", shape="box"] ;
626 -> 628 ;
629 [label="X[7] <= 0.5000\ngini = 0.5\nsamples = 20", shape="box"] ;
625 -> 629 ;
630 [label="X[9] <= 15.5000\ngini = 0.484429065744\nsamples = 17", shape="box"] ;
629 -> 630 ;
631 [label="X[1] <= 4.0000\ngini = 0.497041420118\nsamples = 13", shape="box"] ;
630 -> 631 ;
632 [label="X[9] <= 13.5000\ngini = 0.32\nsamples = 5", shape="box"] ;
631 -> 632 ;
633 [label="gini = 0.0000\nsamples = 4\nvalue = [ 4.  0.]", shape="box"] ;
632 -> 633 ;
634 [label="gini = 0.0000\nsamples = 1\nvalue = [ 0.  1.]", shape="box"] ;
632 -> 634 ;
635 [label="X[13] <= 91.0000\ngini = 0.375\nsamples = 8", shape="box"] ;
631 -> 635 ;
636 [label="X[0] <= 56.5000\ngini = 0.244897959184\nsamples = 7", shape="box"] ;
635 -> 636 ;
637 [label="gini = 0.0000\nsamples = 1\nvalue = [ 1.  0.]", shape="box"] ;
636 -> 637 ;
638 [label="gini = 0.0000\nsamples = 6\nvalue = [ 0.  6.]", shape="box"] ;
636 -> 638 ;
639 [label="gini = 0.0000\nsamples = 1\nvalue = [ 1.  0.]", shape="box"] ;
635 -> 639 ;
640 [label="gini = 0.0000\nsamples = 4\nvalue = [ 4.  0.]", shape="box"] ;
630 -> 640 ;
641 [label="gini = 0.0000\nsamples = 3\nvalue = [ 0.  3.]", shape="box"] ;
629 -> 641 ;
642 [label="gini = 0.0000\nsamples = 7\nvalue = [ 0.  7.]", shape="box"] ;
586 -> 642 ;
}